<?xml version="1.0"?>
<opencv_storage>
<!-- Created using Computer Vision System Toolbox(tm) for MATLAB(R) -->
<!-- Version 8.3.0.532 (R2014a) -->
<!-- Compatible with OpenCV 2.4 -->
<cascade>
  <stageType>BOOST</stageType>
  <featureType>HOG</featureType>
  <height>50</height>
  <width>32</width>
  <stageParams>
    <boostType>GAB</boostType>
    <minHitRate>9.9500000476837158e-01</minHitRate>
    <maxFalseAlarm>2.0000000298023224e-01</maxFalseAlarm>
    <weightTrimRate>9.4999999999999996e-01</weightTrimRate>
    <maxDepth>1</maxDepth>
    <maxWeakCount>100</maxWeakCount></stageParams>
  <featureParams>
    <maxCatCount>0</maxCatCount>
    <featSize>36</featSize></featureParams>
  <stageNum>7</stageNum>
  <stages>
    <!-- stage 0 -->
    <_>
      <maxWeakCount>5</maxWeakCount>
      <stageThreshold>-8.0951112508773804e-01</stageThreshold>
      <weakClassifiers>
        <_>
          <internalNodes>
            0 -1 24 5.4101616144180298e-02</internalNodes>
          <leafValues>
            -8.1303113698959351e-01 8.8489210605621338e-01</leafValues></_>
        <_>
          <internalNodes>
            0 -1 6 5.6167311966419220e-02</internalNodes>
          <leafValues>
            -6.4257168769836426e-01 9.1019958257675171e-01</leafValues></_>
        <_>
          <internalNodes>
            0 -1 11 5.0600722432136536e-02</internalNodes>
          <leafValues>
            -8.3332985639572144e-01 6.5692585706710815e-01</leafValues></_>
        <_>
          <internalNodes>
            0 -1 12 4.1282787919044495e-02</internalNodes>
          <leafValues>
            -5.2571481466293335e-01 8.5482174158096313e-01</leafValues></_>
        <_>
          <internalNodes>
            0 -1 36 4.6383604407310486e-02</internalNodes>
          <leafValues>
            -8.2064211368560791e-01 5.1488071680068970e-01</leafValues></_></weakClassifiers></_>
    <!-- stage 1 -->
    <_>
      <maxWeakCount>6</maxWeakCount>
      <stageThreshold>-1.3515034914016724e+00</stageThreshold>
      <weakClassifiers>
        <_>
          <internalNodes>
            0 -1 13 5.0748370587825775e-02</internalNodes>
          <leafValues>
            -8.6018234491348267e-01 7.3006135225296021e-01</leafValues></_>
        <_>
          <internalNodes>
            0 -1 21 3.4143403172492981e-02</internalNodes>
          <leafValues>
            -6.5579086542129517e-01 5.9232997894287109e-01</leafValues></_>
        <_>
          <internalNodes>
            0 -1 25 5.0846051424741745e-02</internalNodes>
          <leafValues>
            -4.8901021480560303e-01 7.8461843729019165e-01</leafValues></_>
        <_>
          <internalNodes>
            0 -1 4 8.9833792299032211e-03</internalNodes>
          <leafValues>
            7.2522360086441040e-01 -5.6679189205169678e-01</leafValues></_>
        <_>
          <internalNodes>
            0 -1 34 4.1100218892097473e-02</internalNodes>
          <leafValues>
            -5.3103041648864746e-01 7.5088220834732056e-01</leafValues></_>
        <_>
          <internalNodes>
            0 -1 20 1.2070763856172562e-02</internalNodes>
          <leafValues>
            4.6938961744308472e-01 -8.0142062902450562e-01</leafValues></_></weakClassifiers></_>
    <!-- stage 2 -->
    <_>
      <maxWeakCount>4</maxWeakCount>
      <stageThreshold>-4.7578632831573486e-01</stageThreshold>
      <weakClassifiers>
        <_>
          <internalNodes>
            0 -1 22 5.6397169828414917e-02</internalNodes>
          <leafValues>
            -8.6060607433319092e-01 7.4074071645736694e-01</leafValues></_>
        <_>
          <internalNodes>
            0 -1 18 1.9737590104341507e-02</internalNodes>
          <leafValues>
            -7.8899884223937988e-01 7.1857041120529175e-01</leafValues></_>
        <_>
          <internalNodes>
            0 -1 47 1.6997443512082100e-02</internalNodes>
          <leafValues>
            -8.3364641666412354e-01 6.2968885898590088e-01</leafValues></_>
        <_>
          <internalNodes>
            0 -1 43 1.4601676724851131e-02</internalNodes>
          <leafValues>
            -8.6188346147537231e-01 5.4412972927093506e-01</leafValues></_></weakClassifiers></_>
    <!-- stage 3 -->
    <_>
      <maxWeakCount>7</maxWeakCount>
      <stageThreshold>-1.0336815118789673e+00</stageThreshold>
      <weakClassifiers>
        <_>
          <internalNodes>
            0 -1 33 6.1317332088947296e-02</internalNodes>
          <leafValues>
            -7.2334295511245728e-01 6.0000002384185791e-01</leafValues></_>
        <_>
          <internalNodes>
            0 -1 45 2.7273457497358322e-02</internalNodes>
          <leafValues>
            3.4398603439331055e-01 -8.0912065505981445e-01</leafValues></_>
        <_>
          <internalNodes>
            0 -1 14 4.8435170203447342e-02</internalNodes>
          <leafValues>
            -5.9133893251419067e-01 5.3295826911926270e-01</leafValues></_>
        <_>
          <internalNodes>
            0 -1 27 2.4666775017976761e-02</internalNodes>
          <leafValues>
            -6.1044138669967651e-01 5.9346735477447510e-01</leafValues></_>
        <_>
          <internalNodes>
            0 -1 10 8.3871044218540192e-02</internalNodes>
          <leafValues>
            -5.0509619712829590e-01 6.0978817939758301e-01</leafValues></_>
        <_>
          <internalNodes>
            0 -1 38 3.2935447990894318e-02</internalNodes>
          <leafValues>
            -5.4110974073410034e-01 6.1283814907073975e-01</leafValues></_>
        <_>
          <internalNodes>
            0 -1 1 1.3487430289387703e-02</internalNodes>
          <leafValues>
            -6.4551985263824463e-01 5.0284963846206665e-01</leafValues></_></weakClassifiers></_>
    <!-- stage 4 -->
    <_>
      <maxWeakCount>9</maxWeakCount>
      <stageThreshold>-9.8478096723556519e-01</stageThreshold>
      <weakClassifiers>
        <_>
          <internalNodes>
            0 -1 46 4.5622386038303375e-02</internalNodes>
          <leafValues>
            -8.9272028207778931e-01 2.9870128631591797e-01</leafValues></_>
        <_>
          <internalNodes>
            0 -1 5 3.4726902842521667e-02</internalNodes>
          <leafValues>
            -7.6998221874237061e-01 2.4696394801139832e-01</leafValues></_>
        <_>
          <internalNodes>
            0 -1 36 7.9250358045101166e-02</internalNodes>
          <leafValues>
            -5.6034219264984131e-01 5.4701304435729980e-01</leafValues></_>
        <_>
          <internalNodes>
            0 -1 21 1.3866889290511608e-02</internalNodes>
          <leafValues>
            -6.7619931697845459e-01 3.8722401857376099e-01</leafValues></_>
        <_>
          <internalNodes>
            0 -1 31 6.8352296948432922e-02</internalNodes>
          <leafValues>
            -3.6785694956779480e-01 7.1834409236907959e-01</leafValues></_>
        <_>
          <internalNodes>
            0 -1 39 2.3985162377357483e-02</internalNodes>
          <leafValues>
            -9.5695543289184570e-01 2.3541119694709778e-01</leafValues></_>
        <_>
          <internalNodes>
            0 -1 28 1.5370178967714310e-02</internalNodes>
          <leafValues>
            -5.6447547674179077e-01 4.0780359506607056e-01</leafValues></_>
        <_>
          <internalNodes>
            0 -1 41 1.9552342593669891e-02</internalNodes>
          <leafValues>
            -6.9278097152709961e-01 3.2058852910995483e-01</leafValues></_>
        <_>
          <internalNodes>
            0 -1 8 1.8052631989121437e-02</internalNodes>
          <leafValues>
            -9.5783770084381104e-01 2.1042628586292267e-01</leafValues></_></weakClassifiers></_>
    <!-- stage 5 -->
    <_>
      <maxWeakCount>9</maxWeakCount>
      <stageThreshold>-9.5198529958724976e-01</stageThreshold>
      <weakClassifiers>
        <_>
          <internalNodes>
            0 -1 44 5.4476395249366760e-02</internalNodes>
          <leafValues>
            -8.0314958095550537e-01 1.6806723177433014e-01</leafValues></_>
        <_>
          <internalNodes>
            0 -1 15 6.4257897436618805e-02</internalNodes>
          <leafValues>
            -5.3555738925933838e-01 4.0832659602165222e-01</leafValues></_>
        <_>
          <internalNodes>
            0 -1 7 5.0998184829950333e-02</internalNodes>
          <leafValues>
            -5.3689438104629517e-01 3.8781815767288208e-01</leafValues></_>
        <_>
          <internalNodes>
            0 -1 23 1.0648670792579651e-01</internalNodes>
          <leafValues>
            -3.8846462965011597e-01 5.5127841234207153e-01</leafValues></_>
        <_>
          <internalNodes>
            0 -1 17 1.5536786988377571e-02</internalNodes>
          <leafValues>
            3.3740901947021484e-01 -6.8258953094482422e-01</leafValues></_>
        <_>
          <internalNodes>
            0 -1 1 5.6304438039660454e-03</internalNodes>
          <leafValues>
            -8.7913560867309570e-01 2.4639476835727692e-01</leafValues></_>
        <_>
          <internalNodes>
            0 -1 30 5.9247231110930443e-03</internalNodes>
          <leafValues>
            -9.4938325881958008e-01 1.2344208359718323e-01</leafValues></_>
        <_>
          <internalNodes>
            0 -1 0 2.2268954664468765e-02</internalNodes>
          <leafValues>
            2.6845419406890869e-01 -7.8954499959945679e-01</leafValues></_>
        <_>
          <internalNodes>
            0 -1 42 5.2818033844232559e-02</internalNodes>
          <leafValues>
            -4.5922031998634338e-01 4.3166667222976685e-01</leafValues></_></weakClassifiers></_>
    <!-- stage 6 -->
    <_>
      <maxWeakCount>14</maxWeakCount>
      <stageThreshold>-1.1620311737060547e+00</stageThreshold>
      <weakClassifiers>
        <_>
          <internalNodes>
            0 -1 35 4.1275158524513245e-02</internalNodes>
          <leafValues>
            -6.2790697813034058e-01 3.5135135054588318e-01</leafValues></_>
        <_>
          <internalNodes>
            0 -1 40 6.8211413919925690e-02</internalNodes>
          <leafValues>
            -3.6580348014831543e-01 5.8795213699340820e-01</leafValues></_>
        <_>
          <internalNodes>
            0 -1 9 2.8420155867934227e-02</internalNodes>
          <leafValues>
            -5.1036405563354492e-01 3.8439643383026123e-01</leafValues></_>
        <_>
          <internalNodes>
            0 -1 29 8.6991759017109871e-03</internalNodes>
          <leafValues>
            3.7587666511535645e-01 -5.5069631338119507e-01</leafValues></_>
        <_>
          <internalNodes>
            0 -1 2 7.6343780383467674e-03</internalNodes>
          <leafValues>
            -6.6698032617568970e-01 3.5228666663169861e-01</leafValues></_>
        <_>
          <internalNodes>
            0 -1 10 9.1313458979129791e-02</internalNodes>
          <leafValues>
            -5.1857984066009521e-01 3.9471819996833801e-01</leafValues></_>
        <_>
          <internalNodes>
            0 -1 27 2.2910749539732933e-02</internalNodes>
          <leafValues>
            -6.4070683717727661e-01 3.3113741874694824e-01</leafValues></_>
        <_>
          <internalNodes>
            0 -1 37 4.6606741845607758e-02</internalNodes>
          <leafValues>
            -6.4594429731369019e-01 2.8141117095947266e-01</leafValues></_>
        <_>
          <internalNodes>
            0 -1 3 1.2473225593566895e-02</internalNodes>
          <leafValues>
            -7.3895335197448730e-01 1.7464855313301086e-01</leafValues></_>
        <_>
          <internalNodes>
            0 -1 16 1.7973396927118301e-02</internalNodes>
          <leafValues>
            4.0747365355491638e-01 -4.0629482269287109e-01</leafValues></_>
        <_>
          <internalNodes>
            0 -1 19 1.1701301671564579e-02</internalNodes>
          <leafValues>
            -5.0309896469116211e-01 3.0131620168685913e-01</leafValues></_>
        <_>
          <internalNodes>
            0 -1 26 2.3946691304445267e-02</internalNodes>
          <leafValues>
            1.5408910810947418e-01 -8.8773667812347412e-01</leafValues></_>
        <_>
          <internalNodes>
            0 -1 48 2.3235000669956207e-02</internalNodes>
          <leafValues>
            -7.8542566299438477e-01 1.5162253379821777e-01</leafValues></_>
        <_>
          <internalNodes>
            0 -1 32 3.2285388559103012e-02</internalNodes>
          <leafValues>
            1.2107805162668228e-01 -8.5218584537506104e-01</leafValues></_></weakClassifiers></_></stages>
  <features>
    <_>
      <rect>
        0 0 8 8 0</rect></_>
    <_>
      <rect>
        0 0 8 8 9</rect></_>
    <_>
      <rect>
        0 0 8 8 17</rect></_>
    <_>
      <rect>
        0 0 8 8 19</rect></_>
    <_>
      <rect>
        0 4 8 8 4</rect></_>
    <_>
      <rect>
        0 4 8 8 11</rect></_>
    <_>
      <rect>
        0 12 8 8 0</rect></_>
    <_>
      <rect>
        0 12 8 8 8</rect></_>
    <_>
      <rect>
        0 28 8 8 8</rect></_>
    <_>
      <rect>
        0 32 8 8 24</rect></_>
    <_>
      <rect>
        4 0 8 8 12</rect></_>
    <_>
      <rect>
        4 0 8 8 13</rect></_>
    <_>
      <rect>
        4 4 8 8 1</rect></_>
    <_>
      <rect>
        4 4 8 8 2</rect></_>
    <_>
      <rect>
        4 8 8 8 1</rect></_>
    <_>
      <rect>
        4 8 8 8 2</rect></_>
    <_>
      <rect>
        4 12 8 8 13</rect></_>
    <_>
      <rect>
        4 32 8 8 19</rect></_>
    <_>
      <rect>
        4 32 8 8 23</rect></_>
    <_>
      <rect>
        8 0 8 8 16</rect></_>
    <_>
      <rect>
        8 0 8 8 24</rect></_>
    <_>
      <rect>
        8 32 8 8 30</rect></_>
    <_>
      <rect>
        12 0 8 8 3</rect></_>
    <_>
      <rect>
        12 0 8 8 4</rect></_>
    <_>
      <rect>
        12 4 8 8 14</rect></_>
    <_>
      <rect>
        12 4 8 8 15</rect></_>
    <_>
      <rect>
        12 32 8 8 33</rect></_>
    <_>
      <rect>
        16 0 8 8 6</rect></_>
    <_>
      <rect>
        16 0 8 8 7</rect></_>
    <_>
      <rect>
        16 0 8 8 16</rect></_>
    <_>
      <rect>
        16 0 8 8 34</rect></_>
    <_>
      <rect>
        16 4 8 8 5</rect></_>
    <_>
      <rect>
        16 8 8 8 33</rect></_>
    <_>
      <rect>
        16 12 8 8 16</rect></_>
    <_>
      <rect>
        16 28 8 8 27</rect></_>
    <_>
      <rect>
        16 32 8 8 28</rect></_>
    <_>
      <rect>
        0 8 8 16 26</rect></_>
    <_>
      <rect>
        0 16 8 16 8</rect></_>
    <_>
      <rect>
        0 16 8 16 25</rect></_>
    <_>
      <rect>
        4 0 8 16 12</rect></_>
    <_>
      <rect>
        4 8 8 16 31</rect></_>
    <_>
      <rect>
        4 16 8 16 23</rect></_>
    <_>
      <rect>
        8 16 8 16 30</rect></_>
    <_>
      <rect>
        12 16 8 16 29</rect></_>
    <_>
      <rect>
        16 0 8 16 35</rect></_>
    <_>
      <rect>
        16 12 8 16 31</rect></_>
    <_>
      <rect>
        16 12 8 16 35</rect></_>
    <_>
      <rect>
        0 8 16 8 14</rect></_>
    <_>
      <rect>
        0 16 16 16 26</rect></_></features></cascade>
</opencv_storage>
