<?xml version="1.0"?>
<opencv_storage>
<!-- Created using Computer Vision System Toolbox(tm) for MATLAB(R) -->
<!-- Version 8.3.0.532 (R2014a) -->
<!-- Compatible with OpenCV 2.4 -->
<cascade>
  <stageType>BOOST</stageType>
  <featureType>HOG</featureType>
  <height>56</height>
  <width>32</width>
  <stageParams>
    <boostType>GAB</boostType>
    <minHitRate>9.9500000476837158e-01</minHitRate>
    <maxFalseAlarm>4.0000000596046448e-01</maxFalseAlarm>
    <weightTrimRate>9.4999999999999996e-01</weightTrimRate>
    <maxDepth>1</maxDepth>
    <maxWeakCount>100</maxWeakCount></stageParams>
  <featureParams>
    <maxCatCount>0</maxCatCount>
    <featSize>36</featSize></featureParams>
  <stageNum>2</stageNum>
  <stages>
    <!-- stage 0 -->
    <_>
      <maxWeakCount>2</maxWeakCount>
      <stageThreshold>-7.4436545372009277e-02</stageThreshold>
      <weakClassifiers>
        <_>
          <internalNodes>
            0 -1 3 3.3402614295482635e-02</internalNodes>
          <leafValues>
            -8.8679248094558716e-01 8.3999997377395630e-01</leafValues></_>
        <_>
          <internalNodes>
            0 -1 2 3.4872189164161682e-02</internalNodes>
          <leafValues>
            -8.9588439464569092e-01 8.1235593557357788e-01</leafValues></_></weakClassifiers></_>
    <!-- stage 1 -->
    <_>
      <maxWeakCount>2</maxWeakCount>
      <stageThreshold>-1.1041351407766342e-01</stageThreshold>
      <weakClassifiers>
        <_>
          <internalNodes>
            0 -1 1 3.8796341978013515e-03</internalNodes>
          <leafValues>
            7.8571426868438721e-01 -9.5999997854232788e-01</leafValues></_>
        <_>
          <internalNodes>
            0 -1 0 4.3542124330997467e-02</internalNodes>
          <leafValues>
            -8.9612782001495361e-01 9.4119316339492798e-01</leafValues></_></weakClassifiers></_></stages>
  <features>
    <_>
      <rect>
        12 12 8 8 24</rect></_>
    <_>
      <rect>
        16 8 8 8 30</rect></_>
    <_>
      <rect>
        16 40 8 8 29</rect></_>
    <_>
      <rect>
        12 8 8 16 19</rect></_></features></cascade>
</opencv_storage>
